{
    "architecture": [
        {
            "type": "Linear",
            "in_features": 32,
            "out_features": 2,
            "bias": true
        },
        {
            "type": "ReLU"
        },
        {
            "type": "Linear",
            "in_features": 2,
            "out_features": 1,
            "bias": true
        }
    ],
    "parameters": {
        "layer_0": {
            "weight": [
                [
                    -0.04978341625707653,
                    0.3251792477011678
                ],
                [
                    -0.12426502255911466,
                    0.0744528449062417
                ],
                [
                    0.09089648516280933,
                    0.37288503489867136
                ],
                [
                    -0.16318754539693664,
                    0.11803998285915263
                ],
                [
                    0.0315077164031673,
                    -0.08531250679483365
                ],
                [
                    -0.1599196272252417,
                    0.1875700142395371
                ],
                [
                    0.09004399519257854,
                    -0.23860483616111045
                ],
                [
                    0.1993428221746372,
                    -0.06630243899305907
                ],
                [
                    0.3536955679449471,
                    -0.03941635948742442
                ],
                [
                    -0.4443159956785357,
                    0.32415863613852675
                ],
                [
                    -0.2844002954085935,
                    0.0580497365579217
                ],
                [
                    0.060432093355360976,
                    0.6260936111531383
                ],
                [
                    0.184118091928361,
                    -0.2787234517451471
                ],
                [
                    0.38494786993485414,
                    -0.18520307343586306
                ],
                [
                    0.07864595250347721,
                    -0.15923724732435132
                ],
                [
                    0.25235619877543336,
                    -0.010601563422953405
                ],
                [
                    0.2055550545700408,
                    0.2137765135816551
                ],
                [
                    0.031934956534289856,
                    -0.050255967718297205
                ],
                [
                    -0.19522741190022705,
                    -0.24989604448510358
                ],
                [
                    -0.1018380801634984,
                    -0.09217955304292468
                ],
                [
                    0.26518949816023435,
                    -0.17248241849600982
                ],
                [
                    -0.15315501244450408,
                    0.12719779646473717
                ],
                [
                    0.023129599453076872,
                    0.08786554247073261
                ],
                [
                    -0.13959523762640913,
                    -0.25892041439005603
                ],
                [
                    -0.4861551326671638,
                    -0.020886365098047643
                ],
                [
                    -0.7313981785187892,
                    -0.27295948147503024
                ],
                [
                    -0.20298098028018316,
                    0.24977471725810707
                ],
                [
                    -0.2693171299281849,
                    0.05101213257813866
                ],
                [
                    0.005432971528767656,
                    0.20736187166375358
                ],
                [
                    -0.3646303376396907,
                    -0.3518622552500409
                ],
                [
                    0.06451009734352171,
                    -0.45851342858772276
                ],
                [
                    0.01822828002342383,
                    -0.1461752146989168
                ]
            ],
            "bias": [
                [
                    0.0,
                    0.0
                ]
            ]
        },
        "layer_1": {},
        "layer_2": {
            "weight": [
                [
                    -0.5956651194991142
                ],
                [
                    -0.044089791972672585
                ]
            ],
            "bias": [
                [
                    0.0
                ]
            ]
        }
    }
}